
\data\
ngram 1=5
ngram 2=3

\1-grams:
-99.000000	<unk>
-99.000000	<s>	-1.752754
-2.034158	the	-0.800943
-5.318589	chat-rooms	-0.151088
-1.495702	</s>

\2-grams:
-1.773970	<s> the
-4.878868	the chat-rooms
-0.499794	chat-rooms </s>
