
\data\
ngram 1=21
ngram 2=54
ngram 3=25

\1-grams:
-0.6811531	</s>
-99	<s>	-1.444227
-0.9510576	a	-1.212613
-2.273277	control	-0.1995491
-2.273277	day	-0.1995491
-1.982712	green	-0.3496768
-0.9923518	house	-1.131215
-0.83132	is	-0.5989807
-1.982712	mine	-0.2861166
-1.810166	money	-0.5005792
-1.337818	mouse	-0.8089954
-1.810166	none	-0.4110553
-1.810166	of	-0.5350947
-1.982712	one	-0.3727064
-1.810166	out	-0.5952836
-1.014571	small	-0.02323565
-1.591175	that	-0.708865
-1.591175	the	-0.6820672
-1.088991	there	-1.161163
-1.810166	this	-0.4176781
-1.446277	yellow	-0.7813725

\2-grams:
-1.146128	<s> a
-1.623249	<s> green
-1.623249	<s> mine
-1.623249	<s> money
-1.322219	<s> none
-1.322219	<s> one
-1.146128	<s> out	0.4339377
-0.9242793	<s> that	0
-1.021189	<s> the	0.3575113
-0.4191293	<s> there	0
-1.146128	<s> this
-1.361728	a green
-0.6627578	a house	-0.154902
-0.8846066	a mouse	0.2218488
-0.4586379	a small	-0.771571
-0.6627578	a yellow	-0.2730013
-0.30103	control </s>
-0.30103	day </s>
-0.4771213	green </s>
-0.4771213	green mouse
-0.1180993	house </s>
-0.7201593	house is	-0.6755285
-0.2071255	is a	0.1144242
-1.462398	is mine
-1.161368	is money	0.1249388
-1.462398	is none
-1.279467	is small	-0.2445198
-0.4771213	mine </s>
-0.4771213	mine is
-0.1249387	money </s>
-0.09691001	mouse </s>
-1	mouse is
-0.30103	none </s>
-0.60206	none is
-0.60206	of a
-0.60206	of control
-0.60206	of the
-0.4771213	one </s>
-0.4771213	one day
-0.1249387	out of
-1.095823	small </s>
-1.095823	small house	0.3424227
-0.8016323	small mouse	0.5308477
-0.9777236	small yellow
-0.07918125	that is	0.1991566
-0.1760913	the house	-0.02783953
-0.7781513	the small
-0.02632894	there is	-0.4820847
-0.60206	this house
-0.60206	this is
-0.60206	this small
-0.4259687	yellow house	0.455127
-0.60206	yellow mouse	0.2218488
-0.60206	yellow small

\3-grams:
-1.271663	is a house
-0.9542425	is a mouse
-0.3521825	is a small
-0.5563025	is a yellow
-0.07918125	a house </s>
-0.3222193	small house </s>
-0.6184504	the house is
-0.4935117	yellow house </s>
-0.09691001	house is small
-0.39794	that is a
-0.05799195	there is a
-0.1760913	is money </s>
-0.1760913	a mouse </s>
-0.4935117	small mouse </s>
-0.1760913	yellow mouse </s>
-0.4935117	<s> out of
-0.3521825	a small house
-0.6532125	a small mouse
-0.6532125	a small yellow
-0.3222193	is small </s>
-0.07918125	<s> that is
-0.6184504	<s> the house
-0.02632894	<s> there is
-0.39794	a yellow house
-0.39794	a yellow small

\end\
